{"gradients/conv1.weight":{"bins":[-0.29356980323791504,-0.2831016480922699,-0.27263346314430237,-0.2621653079986572,-0.2516971230506897,-0.24122896790504456,-0.23076081275939941,-0.22029264271259308,-0.20982447266578674,-0.1993563026189804,-0.18888813257217407,-0.17841997742652893,-0.1679518073797226,-0.15748363733291626,-0.14701548218727112,-0.13654731214046478,-0.12607914209365845,-0.11561097204685211,-0.10514280945062637,-0.09467464685440063,-0.0842064768075943,-0.07373830676078796,-0.06327014416456223,-0.05280197784304619,-0.04233381152153015,-0.031865645200014114,-0.021397478878498077,-0.01092931255698204,-0.0004611462354660034,0.010007020086050034,0.02047518640756607,0.030943352729082108,0.04141148924827576,0.051879655569791794,0.06234782189130783,0.07281598448753357,0.0832841545343399,0.09375232458114624,0.10422048717737198,0.11468864977359772,0.12515681982040405,0.1356249898672104,0.14609315991401672,0.15656131505966187,0.1670294851064682,0.17749765515327454,0.18796581029891968,0.198433980345726,0.20890215039253235,0.21937032043933868,0.22983849048614502,0.24030664563179016,0.2507748007774353,0.26124298572540283,0.271711140871048,0.2821793258190155,0.29264748096466064,0.3031156361103058,0.3135838210582733,0.32405197620391846,0.334520161151886,0.34498831629753113,0.35545647144317627,0.3659246563911438,0.37639281153678894],"_type":"histogram","values":[3,0,0,0,0,0,2,1,1,5,4,2,5,6,17,8,7,10,12,18,31,19,17,13,19,16,23,20,20,7,13,12,7,3,3,10,9,8,12,13,11,7,7,4,3,6,5,7,8,5,2,0,0,0,1,2,1,1,1,0,0,1,0,2]},"gradients/deconv3_fb.weight":{"_type":"histogram","values":[2,1,3,1,2,2,2,3,8,10,9,14,32,33,43,57,57,62,94,108,158,174,207,213,285,406,517,627,647,734,831,944,1018,873,742,643,587,518,423,349,318,245,169,135,124,97,50,26,29,21,21,15,16,14,13,10,11,5,9,8,4,4,9,8],"bins":[-0.004254109226167202,-0.00412187771871686,-0.003989646676927805,-0.0038574151694774628,-0.0037251836620271206,-0.003592952387407422,-0.0034607211127877235,-0.0033284896053373814,-0.003196258330717683,-0.0030640270560979843,-0.002931795548647642,-0.0027995642740279436,-0.002667332999408245,-0.002535101491957903,-0.0024028702173382044,-0.002270638709887862,-0.0021384074352681637,-0.002006176160648465,-0.001873944653198123,-0.0017417133785784245,-0.001609481987543404,-0.0014772505965083838,-0.0013450193218886852,-0.0012127879308536649,-0.0010805565398186445,-0.0009483251487836242,-0.0008160938159562647,-0.0006838624831289053,-0.0005516310920938849,-0.00041939973016269505,-0.00028716836823150516,-0.00015493700630031526,-2.2705644369125366e-05,0.00010952571756206453,0.00024175707949325442,0.0003739884414244443,0.0005062198033556342,0.0006384511943906546,0.000770682527218014,0.0009029138600453734,0.0010351452510803938,0.0011673766421154141,0.0012996080331504345,0.001431839307770133,0.0015640706988051534,0.0016963020898401737,0.0018285333644598722,0.0019607648719102144,0.002092996146529913,0.0022252274211496115,0.0023574589285999537,0.002489690203219652,0.0026219217106699944,0.002754152985289693,0.0028863842599093914,0.0030186157673597336,0.003150847041979432,0.0032830783165991306,0.003415309824049473,0.0035475410986691713,0.00367977237328887,0.003812003880739212,0.003944235388189554,0.004076466429978609,0.004208697937428951]},"gradients/deconv4_fb.weight":{"_type":"histogram","values":[1,0,0,1,2,1,0,2,2,4,2,5,6,8,20,24,30,53,71,96,134,174,216,295,394,521,655,823,1117,1518,1990,2676,3584,4927,5806,5905,4633,3796,2808,2224,1675,1297,970,741,509,372,298,215,188,102,87,68,37,29,32,25,7,10,5,3,2,1,1,2],"bins":[-0.0011427935678511858,-0.001110120676457882,-0.001077447785064578,-0.0010447748936712742,-0.0010121021186932921,-0.0009794292272999883,-0.0009467563359066844,-0.0009140834445133805,-0.0008814105531200767,-0.0008487377199344337,-0.0008160648285411298,-0.000783391937147826,-0.000750719103962183,-0.0007180462125688791,-0.0006853733211755753,-0.0006527004879899323,-0.0006200275965966284,-0.0005873547052033246,-0.0005546818720176816,-0.0005220089806243777,-0.0004893360892310739,-0.00045666322694160044,-0.00042399036465212703,-0.00039131747325882316,-0.00035864461096934974,-0.00032597174867987633,-0.00029329885728657246,-0.00026062599499709904,-0.0002279531181557104,-0.00019528024131432176,-0.00016260737902484834,-0.0001299345021834597,-9.726156713441014e-05,-6.45886902930215e-05,-3.191582072759047e-05,7.570524758193642e-07,3.34299256792292e-05,6.610280252061784e-05,9.877567208604887e-05,0.0001314485416514799,0.00016412141849286854,0.00019679429533425719,0.00022946717217564583,0.00026214003446511924,0.00029481289675459266,0.00032748578814789653,0.00036015865043736994,0.0003928315418306738,0.00042550440412014723,0.00045817726640962064,0.0004908501286990941,0.0005235230200923979,0.0005561959114857018,0.0005888687446713448,0.0006215416360646486,0.0006542145274579525,0.0006868874188512564,0.0007195602520368993,0.0007522331434302032,0.0007849060348235071,0.00081757886800915,0.0008502517594024539,0.0008829246507957578,0.0009155974839814007,0.0009482703753747046]},"gradients/deconv1_fb.bias":{"bins":[-0.21829265356063843,-0.21457600593566895,-0.21085937321186066,-0.20714272558689117,-0.2034260779619217,-0.1997094303369522,-0.19599279761314392,-0.19227614998817444,-0.18855950236320496,-0.18484286963939667,-0.18112622201442719,-0.1774095743894577,-0.17369292676448822,-0.16997629404067993,-0.16625964641571045,-0.16254299879074097,-0.15882635116577148,-0.1551097184419632,-0.1513930708169937,-0.14767642319202423,-0.14395979046821594,-0.14024314284324646,-0.13652649521827698,-0.1328098475933075,-0.1290932148694992,-0.12537656724452972,-0.12165992707014084,-0.11794327944517136,-0.11422663927078247,-0.11050999164581299,-0.1067933514714241,-0.10307670384645462,-0.09936006367206573,-0.09564341604709625,-0.09192677587270737,-0.08821012824773788,-0.084493488073349,-0.08077684789896011,-0.07706020027399063,-0.07334356009960175,-0.06962691247463226,-0.06591027230024338,-0.062193628400564194,-0.05847698450088501,-0.054760340601205826,-0.05104369670152664,-0.04732705280184746,-0.043610408902168274,-0.03989376872777939,-0.036177124828100204,-0.03246048092842102,-0.028743837028741837,-0.025027193129062653,-0.02131054922938347,-0.017593905329704285,-0.01387726329267025,-0.010160619392991066,-0.006443975958973169,-0.0027273325249552727,0.000989310909062624,0.004705954343080521,0.008422598242759705,0.012139241211116314,0.015855884179472923,0.019572528079152107],"_type":"histogram","values":[1,0,0,0,0,0,0,0,0,0,0,0,0,0,0,0,0,0,0,0,0,0,0,0,0,0,0,0,0,1,0,0,0,0,0,0,0,0,0,0,0,0,0,0,0,0,0,0,0,0,0,0,0,0,0,0,0,0,0,0,0,0,0,1]},"gradients/deconv2_fb.bias":{"_type":"histogram","values":[1,0,0,0,0,0,0,0,0,0,1,0,0,0,0,0,0,0,0,0,0,0,0,0,0,0,0,0,1,0,0,0,0,0,0,0,0,1,0,0,0,0,0,0,0,1,0,0,0,0,0,0,0,0,0,0,0,0,0,0,0,0,0,1],"bins":[-0.010390672832727432,-0.00994188990443945,-0.009493106976151466,-0.009044324047863483,-0.0085955411195755,-0.008146758191287518,-0.007697975262999535,-0.007249192334711552,-0.006800409406423569,-0.006351626478135586,-0.005902843549847603,-0.00545406062155962,-0.005005277693271637,-0.004556494764983654,-0.004107711836695671,-0.003658928908407688,-0.003210145980119705,-0.0027613630518317223,-0.0023125801235437393,-0.0018637971952557564,-0.0014150142669677734,-0.0009662313386797905,-0.0005174484103918076,-6.866548210382462e-05,0.0003801174461841583,0.0008289003744721413,0.0012776833027601242,0.0017264662310481071,0.00217524915933609,0.002624032087624073,0.003072815015912056,0.003521597944200039,0.003970380872488022,0.004419163800776005,0.004867946729063988,0.005316729657351971,0.005765512585639954,0.0062142955139279366,0.0066630784422159195,0.0071118613705039024,0.007560644298791885,0.008009427227079868,0.008458210155367851,0.008906993083655834,0.009355776011943817,0.0098045589402318,0.010253341868519783,0.010702124796807766,0.011150907725095749,0.011599690653383732,0.012048473581671715,0.012497256509959698,0.01294603943824768,0.013394822366535664,0.013843605294823647,0.01429238822311163,0.014741171151399612,0.015189954079687595,0.01563873700797558,0.016087520867586136,0.016536302864551544,0.016985084861516953,0.01743386872112751,0.017882652580738068,0.018331434577703476]},"gradients/conv2.weight":{"bins":[-0.043401241302490234,-0.042105138301849365,-0.040809039026498795,-0.039512936025857925,-0.038216833025217056,-0.036920733749866486,-0.035624630749225616,-0.03432852774858475,-0.03303242474794388,-0.03173632547259331,-0.03044022247195244,-0.02914412133395672,-0.027848020195961,-0.02655191719532013,-0.02525581605732441,-0.02395971305668354,-0.02266361191868782,-0.0213675107806921,-0.02007140778005123,-0.01877530664205551,-0.017479203641414642,-0.016183102503418922,-0.014887001365423203,-0.013590899296104908,-0.012294797226786613,-0.010998695157468319,-0.009702593088150024,-0.008406491950154305,-0.00711038988083601,-0.0058142878115177155,-0.004518186207860708,-0.0032220843713730574,-0.0019259825348854065,-0.0006298806983977556,0.0006662211380898952,0.001962322974577546,0.003258424811065197,0.0045545268803834915,0.005850628484040499,0.007146730087697506,0.0084428321570158,0.009738934226334095,0.01103503629565239,0.01233113743364811,0.013627239502966404,0.014923341572284698,0.01621944271028042,0.017515545710921288,0.018811646848917007,0.020107747986912727,0.021403850987553596,0.022699952125549316,0.023996055126190186,0.025292156264185905,0.026588257402181625,0.027884360402822495,0.029180461540818214,0.030476562678813934,0.0317726656794548,0.03306876868009567,0.03436486795544624,0.03566097095608711,0.03695707395672798,0.03825317323207855,0.03954927623271942],"_type":"histogram","values":[2,0,2,0,0,2,2,1,2,2,7,1,3,7,5,10,10,12,11,21,24,23,26,31,42,39,50,67,74,96,109,130,133,151,158,167,163,139,126,120,75,47,47,41,35,27,27,22,22,19,12,9,12,10,5,6,5,4,2,2,1,1,0,1]},"gradients/deconv1_fb.weight":{"_type":"histogram","values":[1,0,0,0,1,0,2,1,5,2,2,4,4,5,3,7,9,4,2,7,6,1,5,4,6,6,7,15,18,20,18,23,14,15,11,16,14,15,18,17,13,13,12,11,15,9,11,9,8,4,4,7,3,5,3,3,3,1,2,3,0,1,1,1],"bins":[-0.5566905736923218,-0.5441411733627319,-0.5315918326377869,-0.519042432308197,-0.5064930319786072,-0.4939436912536621,-0.48139429092407227,-0.4688449203968048,-0.45629554986953735,-0.4437461495399475,-0.43119677901268005,-0.4186474084854126,-0.40609803795814514,-0.3935486376285553,-0.38099926710128784,-0.3684498965740204,-0.35590052604675293,-0.3433511257171631,-0.33080175518989563,-0.3182523846626282,-0.30570298433303833,-0.2931536138057709,-0.2806042432785034,-0.26805487275123596,-0.2555054724216461,-0.24295610189437866,-0.23040671646595,-0.21785734593868256,-0.2053079605102539,-0.19275858998298645,-0.1802092045545578,-0.16765983402729034,-0.1551104635000229,-0.14256107807159424,-0.13001170754432678,-0.11746232956647873,-0.10491295158863068,-0.09236356616020203,-0.07981418818235397,-0.06726481020450592,-0.05471543222665787,-0.042166054248809814,-0.029616674408316612,-0.01706729456782341,-0.004517916589975357,0.00803146231919527,0.020580841228365898,0.0331302210688591,0.04567959904670715,0.058228977024555206,0.07077835500240326,0.08332773298025131,0.09587711095809937,0.10842649638652802,0.12097587436437607,0.13352525234222412,0.14607462286949158,0.15862400829792023,0.17117339372634888,0.18372276425361633,0.19627214968204498,0.20882152020931244,0.2213709056377411,0.23392027616500854,0.2464696615934372]},"gradients/deconv4_fb.bias":{"values":[1,0,0,0,0,3,1,0,0,0,2,0,0,1,1,0,1,0,1,1,1,1,0,1,0,1,0,0,1,0,0,2,1,0,0,0,1,0,1,2,1,0,0,0,0,1,2,0,1,0,0,1,0,0,1,0,0,0,0,0,0,0,0,1],"bins":[-0.0038216100074350834,-0.0036997953429818153,-0.0035779806785285473,-0.0034561660140752792,-0.003334351349622011,-0.003212536917999387,-0.0030907222535461187,-0.0029689075890928507,-0.0028470929246395826,-0.0027252782601863146,-0.0026034635957330465,-0.0024816489312797785,-0.002359834499657154,-0.002238019835203886,-0.002116205170750618,-0.00199439050629735,-0.0018725758418440819,-0.0017507611773908138,-0.0016289465129375458,-0.0015071319648995996,-0.0013853173004463315,-0.0012635026359930634,-0.0011416880879551172,-0.0010198734235018492,-0.0008980587590485811,-0.0007762440945953131,-0.0006544294883497059,-0.0005326148821040988,-0.00041080021765083075,-0.00028898558230139315,-0.00016717094695195556,-4.535631160251796e-05,7.645832374691963e-05,0.00019827295909635723,0.0003200875944457948,0.0004419022297952324,0.00056371686514467,0.0006855315295979381,0.0008073461358435452,0.0009291607420891523,0.0010509754065424204,0.0011727900709956884,0.0012946047354489565,0.0014164192834869027,0.0015382339479401708,0.0016600486123934388,0.001781863160431385,0.001903677824884653,0.002025492489337921,0.002147307153791189,0.0022691218182444572,0.0023909364826977253,0.0025127511471509933,0.0026345655787736177,0.002756380243226886,0.002878194907680154,0.003000009572133422,0.00312182423658669,0.003243638901039958,0.003365453565493226,0.0034872679971158504,0.0036090826615691185,0.0037308973260223866,0.0038527119904756546,0.003974526654928923],"_type":"histogram"},"_runtime":14.05512445,"Dataset_Visualization/Batch_2":{"path":"media/images/Dataset_Visualization/Batch_2_4_fc3a2da883b0c2f4e374.png","format":"png","width":138,"height":70,"caption":"Batch 2: square, circle, circle, square, circle, circle, circle, square","_type":"image-file","sha256":"fc3a2da883b0c2f4e37436a1d0bb4428a57de0bef4bea7a40e741d28bfa87b2b","size":17652},"Dataset_Visualization/Batch_1":{"size":17761,"path":"media/images/Dataset_Visualization/Batch_1_3_7ee79319d503eef88101.png","format":"png","width":138,"height":70,"caption":"Batch 1: square, circle, circle, square, circle, square, circle, square","_type":"image-file","sha256":"7ee79319d503eef88101a6b9d14489783f4bffdd230467cd449e3be3b148724a"},"Dataset_Visualization/Batch_3":{"height":70,"caption":"Batch 3: circle, square, circle, circle, square, circle, circle, circle","_type":"image-file","sha256":"9cf842bf039784f3c5115a1d439378b03751aa5101c1a80bc1ed726dd721ba40","size":16853,"path":"media/images/Dataset_Visualization/Batch_3_2_9cf842bf039784f3c511.png","format":"png","width":138},"_wandb":{"runtime":14},"gradients/conv2.bias":{"bins":[-0.016329452395439148,-0.015768857672810555,-0.015208261087536812,-0.014647666364908218,-0.01408707071095705,-0.013526475057005882,-0.012965880334377289,-0.01240528468042612,-0.011844689026474953,-0.011284093372523785,-0.010723497718572617,-0.010162902995944023,-0.009602307341992855,-0.009041711688041687,-0.008481116965413094,-0.007920521311461926,-0.0073599256575107574,-0.006799330003559589,-0.006238734815269709,-0.005678139626979828,-0.00511754397302866,-0.004556948319077492,-0.003996353130787611,-0.0034357577096670866,-0.002875162288546562,-0.002314566867426038,-0.0017539714463055134,-0.001193376025184989,-0.0006327806040644646,-7.218518294394016e-05,0.0004884102381765842,0.0010490056592971087,0.001609601080417633,0.0021701965015381575,0.002730791922658682,0.0032913873437792063,0.0038519827648997307,0.004412578418850899,0.0049731736071407795,0.00553376879543066,0.006094364449381828,0.006654960103332996,0.007215555291622877,0.007776150479912758,0.008336746133863926,0.008897341787815094,0.009457936510443687,0.010018532164394855,0.010579127818346024,0.011139723472297192,0.01170031912624836,0.012260913848876953,0.012821509502828121,0.01338210515677929,0.013942699879407883,0.01450329553335905,0.015063891187310219,0.015624486841261387,0.016185082495212555,0.01674567721784115,0.017306271940469742,0.017866868525743484,0.018427463248372078,0.01898805983364582,0.019548654556274414],"_type":"histogram","values":[1,0,0,1,0,0,0,1,1,0,1,0,0,1,0,0,2,0,0,0,0,0,0,0,1,0,0,0,1,0,0,0,0,0,0,0,1,1,0,0,0,0,0,0,1,0,0,0,0,1,0,0,0,1,0,0,0,0,0,0,0,0,0,1]},"_step":6,"gradients/deconv3_fb.bias":{"values":[2,0,0,0,0,0,0,0,0,0,0,0,2,0,0,0,1,0,0,0,0,0,0,0,0,0,0,0,0,0,0,0,0,0,0,0,0,0,1,2,0,0,0,2,0,0,1,1,1,0,0,0,0,0,0,0,1,0,0,0,1,0,0,1],"bins":[-0.008622542954981327,-0.0083946343511343,-0.008166724815964699,-0.007938816212117672,-0.007710907608270645,-0.007482998538762331,-0.007255089469254017,-0.00702718086540699,-0.006799271795898676,-0.006571362726390362,-0.006343454122543335,-0.006115545053035021,-0.005887635983526707,-0.00565972737967968,-0.005431818310171366,-0.005203909706324339,-0.004976000636816025,-0.004748091567307711,-0.004520182963460684,-0.00429227389395237,-0.004064365290105343,-0.0038364562205970287,-0.0036085471510887146,-0.003380638314411044,-0.0031527294777333736,-0.002924820641055703,-0.0026969118043780327,-0.0024690027348697186,-0.002241093898192048,-0.0020131850615143776,-0.0017852761084213853,-0.001557367155328393,-0.0013294587843120098,-0.0011015499476343393,-0.000873640994541347,-0.0006457320996560156,-0.00041782320477068424,-0.00018991430988535285,3.799458499997854e-05,0.00026590347988530993,0.0004938123747706413,0.0007217212696559727,0.0009496301645413041,0.0011775391176342964,0.001405447954311967,0.0016333567909896374,0.0018612657440826297,0.002089174697175622,0.0023170835338532925,0.002544992370530963,0.0027729012072086334,0.0030008102767169476,0.003228719113394618,0.0034566279500722885,0.0036845370195806026,0.0039124456234276295,0.004140354692935944,0.004368263762444258,0.0045961723662912846,0.004824081435799599,0.0050519900396466255,0.00527989910915494,0.005507808178663254,0.005735716782510281,0.005963625852018595],"_type":"histogram"},"gradients/conv3.weight":{"_type":"histogram","values":[3,1,3,5,12,5,8,14,12,21,26,34,34,29,60,50,65,78,87,115,152,193,229,328,425,601,981,2313,3263,1268,708,433,314,224,149,108,88,70,54,49,36,30,22,22,13,12,11,9,8,4,5,3,2,2,2,1,0,3,1,1,0,0,0,1],"bins":[-0.005503690801560879,-0.005308439955115318,-0.005113189108669758,-0.00491793779656291,-0.00472268695011735,-0.004527436103671789,-0.004332185257226229,-0.004136934410780668,-0.0039416830986738205,-0.0037464324850589037,-0.0035511814057826996,-0.003355930559337139,-0.0031606797128915787,-0.0029654286336153746,-0.002770177787169814,-0.00257492670789361,-0.0023796758614480495,-0.002184425015002489,-0.001989173935726285,-0.0017939230892807245,-0.0015986721264198422,-0.00140342116355896,-0.0012081703171133995,-0.0010129193542525172,-0.0008176683913916349,-0.0006224174285307527,-0.0004271665238775313,-0.00023191559012047946,-3.666465636342764e-05,0.0001585862773936242,0.000353837211150676,0.0005490881158038974,0.0007443386130034924,0.0009395895758643746,0.001134840538725257,0.0013300913851708174,0.0015253423480316997,0.001720593310892582,0.0019158441573381424,0.0021110952366143465,0.002306346083059907,0.0025015969295054674,0.0026968480087816715,0.002892098855227232,0.0030873497016727924,0.0032826007809489965,0.003477851627394557,0.003673102706670761,0.0038683535531163216,0.004063604399561882,0.0042588552460074425,0.00445410655811429,0.004649357404559851,0.004844608251005411,0.005039859097450972,0.005235109943896532,0.00543036125600338,0.00562561210244894,0.005820862948894501,0.006016113795340061,0.006211364641785622,0.006406615488231182,0.00660186680033803,0.00679711764678359,0.006992368493229151]},"gradients/conv1.bias":{"_type":"histogram","values":[1,0,0,0,0,0,0,0,0,0,0,0,0,0,0,0,0,0,0,0,0,0,0,0,0,0,0,1,0,0,0,0,0,0,0,0,0,0,0,0,0,0,0,1,0,0,0,0,0,0,0,0,0,0,0,1,0,0,0,1,0,0,0,1],"bins":[-0.11213748902082443,-0.10981404036283493,-0.10749058425426483,-0.10516713559627533,-0.10284368693828583,-0.10052023082971573,-0.09819678217172623,-0.09587333351373672,-0.09354987740516663,-0.09122642874717712,-0.08890298008918762,-0.08657953143119812,-0.08425607532262802,-0.08193262666463852,-0.07960917800664902,-0.07728572189807892,-0.07496227324008942,-0.07263882458209991,-0.07031536847352982,-0.06799191981554031,-0.06566847115755081,-0.06334501504898071,-0.06102156639099121,-0.05869811773300171,-0.05637466534972191,-0.05405121296644211,-0.051727764308452606,-0.049404311925172806,-0.047080859541893005,-0.0447574108839035,-0.0424339585006237,-0.0401105098426342,-0.0377870574593544,-0.0354636050760746,-0.0331401564180851,-0.030816704034805298,-0.028493253514170647,-0.026169802993535995,-0.023846350610256195,-0.021522900089621544,-0.019199449568986893,-0.01687599904835224,-0.014552547596395016,-0.01222909614443779,-0.009905645623803139,-0.0075821946375072,-0.005258743651211262,-0.0029352926649153233,-0.0006118416786193848,0.0017116093076765537,0.004035060293972492,0.006358511280268431,0.00868196226656437,0.01100541278719902,0.013328864239156246,0.015652315691113472,0.017975766211748123,0.020299216732382774,0.022622667253017426,0.024946119636297226,0.027269570156931877,0.02959302067756653,0.03191647306084633,0.03423992171883583,0.03656337410211563]},"gradients/conv4.bias":{"bins":[-0.004584138281643391,-0.004401642829179764,-0.00421914691105485,-0.004036651458591223,-0.0038541555404663086,-0.0036716600880026817,-0.003489164402708411,-0.0033066687174141407,-0.00312417303211987,-0.0029416773468255997,-0.002759181661531329,-0.0025766859762370586,-0.0023941905237734318,-0.0022116948384791613,-0.0020291991531848907,-0.0018467034678906202,-0.0016642077825963497,-0.0014817120973020792,-0.0012992164120078087,-0.00111672084312886,-0.0009342251578345895,-0.000751729472540319,-0.0005692338454537094,-0.0003867381892632693,-0.00020424253307282925,-2.1746876882389188e-05,0.00016074877930805087,0.00034324443549849093,0.000525740091688931,0.0007082357769832015,0.0008907314040698111,0.0010732270311564207,0.0012557227164506912,0.0014382184017449617,0.0016207140870392323,0.001803209655918181,0.0019857054576277733,0.0021682009100914,0.0023506965953856707,0.002533192280679941,0.0027156879659742117,0.002898183651268482,0.0030806793365627527,0.0032631750218570232,0.00344567047432065,0.0036281661596149206,0.003810661844909191,0.003993157763034105,0.004175653215497732,0.004358148667961359,0.004540644586086273,0.0047231400385499,0.004905635956674814,0.005088131409138441,0.005270627327263355,0.005453122779726982,0.005635618232190609,0.005818114150315523,0.00600060960277915,0.006183105520904064,0.006365600973367691,0.006548096891492605,0.006730592343956232,0.006913088262081146,0.007095583714544773],"_type":"histogram","values":[2,0,0,0,0,0,0,0,1,1,1,1,2,4,2,1,2,0,4,0,2,2,0,3,3,1,1,2,0,0,1,2,3,1,2,0,1,0,3,0,4,1,2,1,1,0,0,3,1,0,0,0,0,0,1,0,1,0,0,0,0,0,0,1]},"gradients/deconv2_fb.weight":{"values":[2,3,3,1,1,0,4,1,1,6,6,10,4,9,8,18,30,37,38,32,42,41,56,58,59,47,51,46,60,67,77,99,98,126,138,130,88,82,78,70,64,69,72,59,45,35,28,28,41,29,21,40,11,14,14,8,16,13,11,17,20,10,5,3],"bins":[-0.02339085005223751,-0.022718679159879684,-0.022046510130167007,-0.02137433923780918,-0.020702168345451355,-0.020029999315738678,-0.019357828423380852,-0.018685659393668175,-0.01801348850131035,-0.017341317608952522,-0.016669148579239845,-0.01599697768688202,-0.015324807725846767,-0.014652637764811516,-0.01398046687245369,-0.013308296911418438,-0.012636126950383186,-0.011963956989347935,-0.011291787028312683,-0.010619616135954857,-0.009947446174919605,-0.009275276213884354,-0.008603105321526527,-0.007930935360491276,-0.007258765399456024,-0.0065865954384207726,-0.005914425011724234,-0.005242254585027695,-0.004570084623992443,-0.003897914430126548,-0.0032257442362606525,-0.0025535740423947573,-0.0018814057111740112,-0.001209235517308116,-0.0005370653234422207,0.00013510487042367458,0.0008072750642895699,0.0014794452581554651,0.0021516154520213604,0.0028237856458872557,0.003495955839753151,0.0041681258007884026,0.0048402962274849415,0.00551246665418148,0.006184636615216732,0.006856806576251984,0.007528977002948523,0.008201147429645061,0.008873317390680313,0.009545487351715565,0.010217657312750816,0.010889828205108643,0.011561998166143894,0.012234168127179146,0.012906339019536972,0.013578508980572224,0.014250678941607475,0.014922848902642727,0.015595018863677979,0.016267189756035805,0.01693936064839363,0.017611529678106308,0.018283700570464134,0.01895586960017681,0.019628040492534637],"_type":"histogram"},"gradients/conv4.weight":{"_type":"histogram","values":[2,0,1,0,1,6,4,6,6,8,22,19,33,44,54,110,132,233,324,521,814,1226,2050,4011,20001,11137,3721,1993,1322,924,602,480,351,226,206,137,117,83,55,59,39,17,32,9,13,7,13,9,3,4,2,1,1,3,2,3,0,0,0,0,0,0,0,1],"bins":[-0.001596496906131506,-0.00153250596486032,-0.0014685149071738124,-0.0014045238494873047,-0.0013405329082161188,-0.001276541966944933,-0.0012125509092584252,-0.0011485598515719175,-0.0010845689103007317,-0.0010205779690295458,-0.0009565869113430381,-0.0008925959118641913,-0.0008286049123853445,-0.0007646139129064977,-0.0007006229134276509,-0.0006366319139488041,-0.0005726409144699574,-0.0005086499149911106,-0.0004446589155122638,-0.000380667916033417,-0.0003166769165545702,-0.0002526859170757234,-0.00018869491759687662,-0.00012470391811802983,-6.0712918639183044e-05,3.278080839663744e-06,6.726908031851053e-05,0.00013126007979735732,0.0001952510792762041,0.0002592420787550509,0.0003232330782338977,0.0003872240777127445,0.00045121507719159126,0.000515206076670438,0.0005791970761492848,0.0006431880756281316,0.0007071790751069784,0.0007711700745858252,0.000835161074064672,0.0008991520735435188,0.0009631430730223656,0.0010271340142935514,0.0010911250719800591,0.0011551161296665668,0.0012191070709377527,0.0012830980122089386,0.0013470890698954463,0.001411080127581954,0.0014750710688531399,0.0015390620101243258,0.0016030530678108335,0.0016670441254973412,0.001731035066768527,0.001795026008039713,0.0018590170657262206,0.0019230081234127283,0.001986999064683914,0.0020509900059551,0.002114980947226286,0.0021789721213281155,0.0022429630625993013,0.002306954003870487,0.0023709451779723167,0.0024349361192435026,0.0024989270605146885]},"_timestamp":1.757347390478404e+09,"gradients/conv3.bias":{"values":[1,0,0,0,0,0,0,0,1,2,0,1,0,1,1,0,1,0,0,0,1,2,0,0,1,1,0,1,0,0,0,1,0,0,0,1,1,2,0,0,0,2,1,0,1,0,2,0,1,0,1,0,1,0,1,0,0,1,0,0,0,0,1,1],"bins":[-0.010448375716805458,-0.010154062882065773,-0.009859750047326088,-0.009565436281263828,-0.009271123446524143,-0.008976810611784458,-0.008682496845722198,-0.008388184010982513,-0.008093871176242828,-0.007799558341503143,-0.007505245041102171,-0.007210931740701199,-0.0069166189059615135,-0.0066223060712218285,-0.006327992770820856,-0.006033679470419884,-0.005739366635680199,-0.005445053800940514,-0.005150740500539541,-0.004856427200138569,-0.004562114365398884,-0.004267801530659199,-0.003973488230258226,-0.0036791751626878977,-0.003384862095117569,-0.0030905490275472403,-0.0027962359599769115,-0.002501922892406583,-0.002207609824836254,-0.0019132967572659254,-0.0016189836896955967,-0.001324670622125268,-0.0010303584858775139,-0.0007360454183071852,-0.00044173235073685646,-0.00014741928316652775,0.00014689378440380096,0.0004412068519741297,0.0007355199195444584,0.001029832987114787,0.0013241460546851158,0.0016184591222554445,0.0019127721898257732,0.002207085257396102,0.0025013983249664307,0.0027957113925367594,0.003090024460107088,0.003384337527677417,0.0036786505952477455,0.003972963429987431,0.004267276730388403,0.004561590030789375,0.00485590286552906,0.005150215700268745,0.005444529000669718,0.00573884230107069,0.006033155135810375,0.00632746797055006,0.006621781270951033,0.006916094571352005,0.00721040740609169,0.007504720240831375,0.0077990335412323475,0.00809334684163332,0.008387659676373005],"_type":"histogram"},"Training_Progress/Epoch_0_Samples":{"size":16478,"path":"media/images/Training_Progress/Epoch_0_Samples_5_5d577e44f0577323ac00.png","format":"png","width":138,"height":70,"caption":"Training samples at epoch 0","_type":"image-file","sha256":"5d577e44f0577323ac0016b4387f2fff89b1ac8537aa508785be18bbd8df9266"}}