{"gradients/conv3.weight":{"_type":"histogram","values":[1,1,1,0,2,3,1,2,6,2,4,11,4,15,22,27,29,61,61,75,104,129,156,169,242,296,337,442,640,958,2723,2973,730,568,376,310,225,210,186,143,100,84,92,65,58,38,34,20,10,10,6,8,7,4,4,2,5,1,3,1,1,1,0,1],"bins":[-0.46886146068573,-0.4537487030029297,-0.4386359453201294,-0.4235231876373291,-0.4084104299545288,-0.3932976722717285,-0.3781849145889282,-0.36307215690612793,-0.34795939922332764,-0.33284661173820496,-0.31773385405540466,-0.30262109637260437,-0.2875083386898041,-0.2723955810070038,-0.2572828233242035,-0.2421700656414032,-0.2270573079586029,-0.2119445502758026,-0.19683179259300232,-0.18171903491020203,-0.16660627722740173,-0.15149350464344025,-0.13638074696063995,-0.12126798927783966,-0.10615523159503937,-0.09104247391223907,-0.07592971622943878,-0.06081695109605789,-0.0457041934132576,-0.030591433867812157,-0.015478674322366714,-0.0003659147769212723,0.01474684476852417,0.029859604313969612,0.044972363859415054,0.060085125267505646,0.07519788295030594,0.09031064063310623,0.10542340576648712,0.12053616344928741,0.1356489211320877,0.150761678814888,0.1658744364976883,0.1809871941804886,0.19609996676445007,0.21121272444725037,0.22632548213005066,0.24143823981285095,0.25655099749565125,0.27166375517845154,0.28677651286125183,0.3018892705440521,0.3170020282268524,0.3321147859096527,0.347227543592453,0.3623403012752533,0.377453088760376,0.39256584644317627,0.40767860412597656,0.42279136180877686,0.43790411949157715,0.45301687717437744,0.46812963485717773,0.483242392539978,0.4983551502227783]},"gradients/conv2.bias":{"_type":"histogram","values":[1,0,0,0,0,0,0,0,0,1,0,0,0,0,0,0,0,0,1,0,0,0,1,0,0,0,1,1,0,0,1,0,1,0,1,2,0,0,0,0,1,0,1,0,1,1,0,0,0,0,0,0,0,0,0,0,0,0,0,0,0,0,0,1],"bins":[-1.6308438777923584,-1.5802972316741943,-1.5297504663467407,-1.479203701019287,-1.428657054901123,-1.378110408782959,-1.3275636434555054,-1.2770168781280518,-1.2264702320098877,-1.1759235858917236,-1.12537682056427,-1.0748300552368164,-1.0242834091186523,-0.9737367033958435,-0.9231899976730347,-0.8726432919502258,-0.822096586227417,-0.7715498805046082,-0.7210031747817993,-0.6704564690589905,-0.6199097633361816,-0.5693630576133728,-0.518816351890564,-0.4682696461677551,-0.4177229404449463,-0.36717623472213745,-0.3166295289993286,-0.2660828232765198,-0.21553611755371094,-0.1649894118309021,-0.11444270610809326,-0.06389600038528442,-0.013349413871765137,0.0371972918510437,0.08774399757385254,0.13829070329666138,0.18883740901947021,0.23938411474227905,0.2899308204650879,0.34047752618789673,0.39102423191070557,0.4415709376335144,0.49211764335632324,0.5426643490791321,0.5932110548019409,0.6437577605247498,0.6943044662475586,0.7448511719703674,0.7953978776931763,0.8459445834159851,0.896491289138794,0.9470379948616028,0.9975847005844116,1.0481314659118652,1.0986781120300293,1.1492247581481934,1.199771523475647,1.2503182888031006,1.3008649349212646,1.3514115810394287,1.4019583463668823,1.452505111694336,1.5030517578125,1.553598403930664,1.6041451692581177]},"Classification_with_Predictive_Coding_On_Models_Pretrained_with_Reconstruction/Fine_tuned_Recon_Testing_loss":0.0019513101175521747,"Classification_with_Predictive_Coding_On_Models_Pretrained_with_Reconstruction/fine_tuned_test_loss":1.6879327825353116,"gradients/fc2.bias":{"_type":"histogram","values":[1,0,0,0,0,0,0,0,0,0,0,0,0,0,0,1,0,0,0,0,0,0,0,1,0,0,0,0,0,0,0,0,0,0,0,2,0,0,0,0,0,0,0,0,0,0,0,0,0,1,0,0,1,0,0,1,0,0,0,0,0,1,0,1],"bins":[-0.07318515330553055,-0.07132512331008911,-0.06946509331464767,-0.06760506331920624,-0.0657450333237648,-0.06388500332832336,-0.06202497333288193,-0.06016494333744049,-0.058304913341999054,-0.056444887071847916,-0.05458485707640648,-0.05272482708096504,-0.050864797085523605,-0.04900476709008217,-0.04714473709464073,-0.045284707099199295,-0.04342467710375786,-0.04156464710831642,-0.039704617112874985,-0.03784458711743355,-0.03598455712199211,-0.034124527126550674,-0.03226449713110924,-0.03040446899831295,-0.028544439002871513,-0.026684409007430077,-0.02482437901198864,-0.022964349016547203,-0.021104320883750916,-0.01924429088830948,-0.017384260892868042,-0.015524230897426605,-0.01366419717669487,-0.011804167181253433,-0.009944137185811996,-0.008084108121693134,-0.0062240781262516975,-0.004364048130810261,-0.0025040186010301113,-0.0006439888384193182,0.001216040924191475,0.003076070686802268,0.004936100449413061,0.006796129979193211,0.008656159974634647,0.010516189970076084,0.012376219034194946,0.014236249029636383,0.01609627902507782,0.017956309020519257,0.019816339015960693,0.02167636901140213,0.023536399006843567,0.025396427139639854,0.02725645713508129,0.029116487130522728,0.030976517125964165,0.03283654525876045,0.03469657525420189,0.036556605249643326,0.03841663524508476,0.0402766652405262,0.042136695235967636,0.04399672523140907,0.04585675522685051]},"_timestamp":1.7546768193259034e+09,"gradients/deconv2_fb.bias":{"_type":"histogram","values":[1,0,0,0,0,0,0,0,0,0,0,0,0,0,0,0,0,0,0,0,0,0,0,0,0,0,0,0,0,0,0,1,1,0,0,0,0,1,1,0,0,0,0,0,0,0,0,0,0,0,0,0,0,0,0,0,0,0,0,0,0,0,0,1],"bins":[-0.09575088322162628,-0.09295310825109482,-0.09015533328056335,-0.08735756576061249,-0.08455979079008102,-0.08176201581954956,-0.0789642482995987,-0.07616647332906723,-0.07336869835853577,-0.0705709233880043,-0.06777314841747284,-0.06497538089752197,-0.06217760592699051,-0.059379830956459045,-0.05658205971121788,-0.053784288465976715,-0.05098651349544525,-0.04818873852491379,-0.04539096727967262,-0.04259319603443146,-0.039795421063899994,-0.03699764609336853,-0.034199874848127365,-0.0314021036028862,-0.028604328632354736,-0.025806555524468422,-0.023008782416582108,-0.020211009308695793,-0.01741323620080948,-0.014615463092923164,-0.01181768998503685,-0.009019916877150536,-0.006222143769264221,-0.003424370661377907,-0.0006265975534915924,0.002171175554394722,0.004968948662281036,0.007766721770167351,0.010564494878053665,0.01336226798593998,0.016160041093826294,0.01895781420171261,0.021755587309598923,0.024553360417485237,0.02735113352537155,0.030148906633257866,0.03294667974114418,0.035744450986385345,0.03854222595691681,0.04134000092744827,0.04413777217268944,0.0469355434179306,0.04973331838846207,0.05253109335899353,0.055328864604234695,0.05812663584947586,0.060924410820007324,0.06372218579053879,0.06651996076107025,0.06931772828102112,0.07211550325155258,0.07491327822208405,0.07771104574203491,0.08050882071256638,0.08330659568309784]},"Classification_with_Predictive_Coding_On_Models_Pretrained_with_Reconstruction/fine_tuned_Recon_Training_loss":0.001953804753232471,"gradients/fc1.weight":{"_type":"histogram","values":[2,4,2,1,1,1,7,4,11,5,11,4,18,18,18,13,16,28,35,46,43,56,74,97,92,156,199,252,323,396,487,738,13399,2206,711,450,318,287,187,156,128,101,76,56,59,48,28,32,24,13,12,7,16,9,4,6,5,2,3,0,0,1,1,1],"bins":[-0.01967032253742218,-0.01907355524599552,-0.018476789817214012,-0.017880022525787354,-0.017283257097005844,-0.016686489805579185,-0.016089722514152527,-0.015492956154048443,-0.014896189793944359,-0.014299423433840275,-0.01370265707373619,-0.013105889782309532,-0.012509123422205448,-0.011912357062101364,-0.011315589770674706,-0.010718823410570621,-0.010122057050466537,-0.009525290690362453,-0.00892852433025837,-0.00833175703883171,-0.007734990678727627,-0.007138224318623543,-0.0065414574928581715,-0.0059446906670928,-0.005347924306988716,-0.004751157946884632,-0.004154391121119261,-0.003557624528184533,-0.0029608579352498055,-0.0023640913423150778,-0.0017673247493803501,-0.0011705581564456224,-0.0005737915635108948,2.2975029423832893e-05,0.0006197416223585606,0.0012165082152932882,0.001813274808228016,0.0024100414011627436,0.0030068079940974712,0.003603574587032199,0.004200341179966927,0.004797107540071011,0.005393874365836382,0.005990641191601753,0.006587407551705837,0.007184173911809921,0.007780940737575293,0.008377707563340664,0.008974473923444748,0.009571240283548832,0.010168006643652916,0.010764773935079575,0.011361540295183659,0.011958306655287743,0.012555073946714401,0.013151840306818485,0.01374860666692257,0.014345373027026653,0.014942139387130737,0.015538906678557396,0.016135673969984055,0.016732439398765564,0.017329206690192223,0.017925972118973732,0.01852273941040039]},"Classification_with_Predictive_Coding_On_Models_Pretrained_with_Reconstruction/fine_tuned_Training_accuracy":39.102,"Classification_with_Predictive_Coding_On_Models_Pretrained_with_Reconstruction/fine_tuned_Testing_accuracy":38.82909090909091,"gradients/conv1.bias":{"values":[1,0,0,0,0,0,0,0,0,0,0,0,0,0,0,0,0,0,0,0,0,0,0,0,0,0,0,0,0,0,0,0,0,0,1,0,0,0,0,0,0,0,0,1,0,0,0,1,0,0,0,0,0,0,0,0,0,0,0,0,1,0,0,1],"bins":[-1.0231658220291138,-1.0004931688308716,-0.9778204560279846,-0.9551478028297424,-0.9324751496315002,-0.9098024368286133,-0.8871297836303711,-0.8644571304321289,-0.8417844772338867,-0.8191117644309998,-0.7964391112327576,-0.7737664580345154,-0.7510937452316284,-0.7284210920333862,-0.705748438835144,-0.6830757260322571,-0.6604030728340149,-0.6377304196357727,-0.6150577068328857,-0.5923850536346436,-0.5697124004364014,-0.5470396876335144,-0.5243670344352722,-0.50169438123703,-0.47902169823646545,-0.4563490152359009,-0.4336763620376587,-0.4110036790370941,-0.38833099603652954,-0.36565834283828735,-0.3429856598377228,-0.3203130066394806,-0.29764026403427124,-0.27496758103370667,-0.2522949278354645,-0.2296222448348999,-0.20694957673549652,-0.18427690863609314,-0.16160422563552856,-0.13893155753612518,-0.1162588894367218,-0.09358622133731842,-0.07091354578733444,-0.04824087396264076,-0.025568202137947083,-0.0028955303132534027,0.019777141511440277,0.04244981333613396,0.06512248516082764,0.08779515326023102,0.110467828810215,0.13314050436019897,0.15581317245960236,0.17848584055900574,0.2011585235595703,0.2238311916589737,0.24650385975837708,0.26917654275894165,0.29184919595718384,0.3145218789577484,0.337194561958313,0.3598672151565552,0.38253989815711975,0.40521255135536194,0.4278852343559265],"_type":"histogram"},"gradients/deconv3_fb.bias":{"values":[1,0,0,0,0,0,0,0,0,0,0,0,0,0,0,0,0,0,0,0,0,0,0,0,1,0,0,0,0,1,0,0,0,2,1,2,3,0,1,0,0,1,0,0,1,0,0,1,0,0,0,0,0,0,0,0,0,0,0,0,0,0,0,1],"bins":[-0.4834187626838684,-0.47076958417892456,-0.4581203758716583,-0.4454711973667145,-0.43282201886177063,-0.4201728105545044,-0.40752363204956055,-0.3948744535446167,-0.38222524523735046,-0.3695760667324066,-0.35692688822746277,-0.34427767992019653,-0.3316285014152527,-0.31897932291030884,-0.3063301146030426,-0.29368093609809875,-0.2810317277908325,-0.26838254928588867,-0.2557333707809448,-0.24308417737483978,-0.23043498396873474,-0.2177858054637909,-0.20513661205768585,-0.1924874186515808,-0.17983824014663696,-0.16718904674053192,-0.15453985333442688,-0.14189065992832184,-0.129241481423378,-0.11659228801727295,-0.1039431020617485,-0.09129390865564346,-0.07864472270011902,-0.06599553674459457,-0.05334634333848953,-0.04069715738296509,-0.028047967702150345,-0.015398778952658176,-0.002749590203166008,0.00989959854632616,0.02254878729581833,0.03519797697663307,0.047847166657447815,0.06049635261297226,0.0731455385684967,0.08579473197460175,0.09844391793012619,0.11109311133623123,0.12374229729175568,0.13639149069786072,0.14904066920280457,0.1616898626089096,0.17433905601501465,0.1869882345199585,0.19963742792606354,0.21228662133216858,0.22493579983711243,0.23758499324321747,0.2502341866493225,0.26288336515426636,0.2755325734615326,0.28818175196647644,0.3008309304714203,0.3134801387786865,0.32612931728363037],"_type":"histogram"},"_runtime":17630,"gradients/conv2.weight":{"values":[2,0,0,2,2,1,2,2,2,5,1,6,4,5,17,13,16,24,35,29,35,36,46,46,52,57,91,140,174,349,431,132,77,70,102,101,67,46,30,17,17,22,21,13,11,8,6,4,4,5,6,1,3,2,3,2,1,1,0,1,1,0,0,1],"bins":[-0.9168113470077515,-0.8863748908042908,-0.8559384346008301,-0.8255019783973694,-0.7950654625892639,-0.7646290063858032,-0.7341925501823425,-0.7037560939788818,-0.6733196377754211,-0.6428831815719604,-0.612446665763855,-0.5820102095603943,-0.5515737533569336,-0.5211372971534729,-0.4907008409500122,-0.4602643549442291,-0.42982789874076843,-0.39939144253730774,-0.36895495653152466,-0.33851850032806396,-0.30808204412460327,-0.2776455581188202,-0.2472091019153595,-0.2167726457118988,-0.18633617460727692,-0.15589970350265503,-0.12546324729919434,-0.09502677619457245,-0.06459031254053116,-0.03415384888648987,-0.0037173815071582794,0.02671908400952816,0.0571555495262146,0.08759201318025589,0.11802847683429718,0.14846494793891907,0.17890140414237976,0.20933787524700165,0.23977434635162354,0.27021080255508423,0.3006472587585449,0.331083744764328,0.3615202009677887,0.3919566571712494,0.42239314317703247,0.45282959938049316,0.48326605558395386,0.5137025117874146,0.54413902759552,0.5745754837989807,0.6050119400024414,0.6354483962059021,0.6658848524093628,0.6963213086128235,0.7267577648162842,0.7571942806243896,0.7876307368278503,0.818067193031311,0.8485036492347717,0.8789401054382324,0.9093765616416931,0.9398130774497986,0.9702495336532593,1.0006859302520752,1.0311224460601807],"_type":"histogram"},"gradients/deconv4_fb.weight":{"values":[2,0,0,0,1,0,1,2,0,0,0,2,2,2,0,3,3,6,8,16,19,32,61,84,116,149,156,255,332,546,787,1209,1627,2434,3636,6118,10582,8655,4777,2943,2007,1404,1001,654,441,305,232,156,115,81,45,38,44,26,16,19,12,9,7,8,4,4,2,4],"bins":[-0.08903604745864868,-0.08661778271198273,-0.08419951051473618,-0.08178123831748962,-0.07936297357082367,-0.07694470882415771,-0.07452643662691116,-0.07210816442966461,-0.06968989968299866,-0.0672716349363327,-0.06485336273908615,-0.0624350942671299,-0.060016825795173645,-0.05759855732321739,-0.05518028885126114,-0.052762020379304886,-0.05034375190734863,-0.04792548343539238,-0.04550721496343613,-0.043088946491479874,-0.04067067801952362,-0.03825240954756737,-0.035834141075611115,-0.03341587260365486,-0.03099760413169861,-0.028579335659742355,-0.026161067187786102,-0.02374279871582985,-0.021324530243873596,-0.018906261771917343,-0.01648799329996109,-0.014069724828004837,-0.011651456356048584,-0.009233187884092331,-0.006814919412136078,-0.004396650940179825,-0.0019783824682235718,0.0004398860037326813,0.0028581544756889343,0.005276422947645187,0.00769469141960144,0.010112959891557693,0.012531228363513947,0.0149494968354702,0.017367765307426453,0.019786033779382706,0.02220430225133896,0.024622570723295212,0.027040839195251465,0.029459107667207718,0.03187737613916397,0.034295644611120224,0.03671391308307648,0.03913218155503273,0.04155045002698898,0.043968718498945236,0.04638698697090149,0.04880525544285774,0.051223523914813995,0.05364179238677025,0.0560600608587265,0.058478329330682755,0.06089659780263901,0.06331486999988556,0.06573313474655151],"_type":"histogram"},"gradients/conv4.weight":{"_type":"histogram","values":[1,0,0,0,1,3,1,3,3,3,5,4,9,13,14,19,20,35,43,49,69,85,99,139,171,247,308,423,560,781,1096,1626,2387,4595,18411,8200,3716,2295,1538,1028,709,586,423,364,264,187,160,117,92,80,54,41,34,32,23,12,13,0,3,2,2,1,0,1],"bins":[-0.3757072985172272,-0.3648805320262909,-0.3540537655353546,-0.34322699904441833,-0.33240023255348206,-0.3215734660625458,-0.3107466995716095,-0.2999199330806732,-0.28909313678741455,-0.27826637029647827,-0.267439603805542,-0.2566128373146057,-0.24578607082366943,-0.23495930433273315,-0.22413253784179688,-0.2133057713508606,-0.20247900485992432,-0.19165223836898804,-0.18082547187805176,-0.16999870538711548,-0.1591719388961792,-0.14834515750408173,-0.13751839101314545,-0.12669162452220917,-0.11586485803127289,-0.10503809154033661,-0.09421132504940033,-0.08338455110788345,-0.07255778461694717,-0.061731018126010895,-0.05090424790978432,-0.04007747769355774,-0.029250681400299072,-0.018423913046717644,-0.007597144693136215,0.0032296236604452133,0.014056392014026642,0.02488316036760807,0.0357099287211895,0.04653669893741608,0.057363465428352356,0.06819023191928864,0.07901699841022491,0.08984377235174179,0.10067053884267807,0.11149730533361435,0.12232407927513123,0.1331508457660675,0.14397761225700378,0.15480437874794006,0.16563114523887634,0.17645791172981262,0.1872846782207489,0.19811145961284637,0.20893822610378265,0.21976499259471893,0.2305917590856552,0.2414185255765915,0.25224530696868896,0.26307207345962524,0.2738988399505615,0.2847256064414978,0.2955523729324341,0.30637913942337036,0.31720590591430664]},"gradients/deconv3_fb.weight":{"values":[4,5,2,4,2,8,5,6,8,4,15,9,12,19,25,23,27,39,44,58,65,88,128,154,192,226,364,478,791,1189,2406,2483,1325,778,517,362,227,146,102,95,60,52,30,25,37,32,20,25,14,8,5,6,5,5,6,8,4,6,5,3,1,2,4,2],"bins":[-0.03814825043082237,-0.03692883253097534,-0.03570941463112831,-0.03448999673128128,-0.03327057883143425,-0.03205116093158722,-0.03083174303174019,-0.029612325131893158,-0.028392907232046127,-0.027173489332199097,-0.025954071432352066,-0.024734653532505035,-0.023515235632658005,-0.022295817732810974,-0.021076399832963943,-0.019856981933116913,-0.018637564033269882,-0.01741814613342285,-0.01619872823357582,-0.01497931033372879,-0.01375989243388176,-0.012540474534034729,-0.011321056634187698,-0.010101638734340668,-0.008882220834493637,-0.0076628029346466064,-0.006443385034799576,-0.005223967134952545,-0.0040045492351055145,-0.002785131335258484,-0.0015657134354114532,-0.0003462955355644226,0.0008731260895729065,0.002092543989419937,0.0033119618892669678,0.004531379789113998,0.005750797688961029,0.00697021558880806,0.00818963348865509,0.009409051388502121,0.010628469288349152,0.011847887188196182,0.013067305088043213,0.014286722987890244,0.015506140887737274,0.016725558787584305,0.017944976687431335,0.019164394587278366,0.020383812487125397,0.021603230386972427,0.022822648286819458,0.02404206618666649,0.02526148408651352,0.02648090198636055,0.02770031988620758,0.02891973778605461,0.030139155685901642,0.03135857358574867,0.0325779914855957,0.033797409385442734,0.035016827285289764,0.036236245185136795,0.037455663084983826,0.038675080984830856,0.03989449888467789],"_type":"histogram"},"gradients/deconv2_fb.weight":{"bins":[-0.019001862034201622,-0.01843595691025257,-0.01787005178630352,-0.01730414666235447,-0.01673824153840542,-0.016172336414456367,-0.015606431290507317,-0.015040526166558266,-0.014474621042609215,-0.013908715918660164,-0.013342810794711113,-0.012776905670762062,-0.012211000546813011,-0.01164509542286396,-0.01107919029891491,-0.010513285174965858,-0.009947380051016808,-0.009381474927067757,-0.008815569803118706,-0.008249664679169655,-0.007683759555220604,-0.007117854431271553,-0.006551949307322502,-0.005986044183373451,-0.0054201390594244,-0.004854233935475349,-0.0042883288115262985,-0.0037224236875772476,-0.0031565185636281967,-0.002590613439679146,-0.002024708315730095,-0.001458803191781044,-0.0008928962051868439,-0.00032699108123779297,0.00023891404271125793,0.0008048191666603088,0.0013707242906093597,0.0019366294145584106,0.0025025345385074615,0.0030684396624565125,0.0036343447864055634,0.004200249910354614,0.004766155034303665,0.005332060158252716,0.005897965282201767,0.006463870406150818,0.007029775530099869,0.00759568065404892,0.00816158577799797,0.008727490901947021,0.009293396025896072,0.009859301149845123,0.010425206273794174,0.010991111397743225,0.011557016521692276,0.012122921645641327,0.012688826769590378,0.013254731893539429,0.01382063701748848,0.01438654214143753,0.014952447265386581,0.015518352389335632,0.016084257513284683,0.016650162637233734,0.017216067761182785],"_type":"histogram","values":[3,2,2,2,3,3,4,4,2,9,7,0,7,11,18,14,6,11,22,17,34,33,28,40,44,38,36,44,57,72,93,130,241,397,154,103,86,77,74,46,53,56,47,38,31,19,24,26,38,24,6,10,10,4,2,3,5,2,6,4,3,4,3,8]},"Time Taken to Run the Code(Mins)":293.87327425877254,"_step":160,"_wandb":{"runtime":17630},"gradients/fc2.weight":{"_type":"histogram","values":[1,0,0,1,0,0,0,0,0,0,0,0,1,1,0,0,0,1,0,2,0,3,2,2,4,2,3,6,5,2,8,8,14,19,23,26,24,30,37,375,38,37,34,26,23,26,18,9,7,6,4,0,2,3,0,2,1,0,1,0,0,2,0,1],"bins":[-0.023570185527205467,-0.022968467324972153,-0.022366749122738838,-0.021765030920505524,-0.02116331271827221,-0.020561594516038895,-0.01995987631380558,-0.019358158111572266,-0.018756438046693802,-0.018154719844460487,-0.017553001642227173,-0.01695128343999386,-0.016349565237760544,-0.01574784703552723,-0.015146128833293915,-0.0145444106310606,-0.013942692428827286,-0.013340974226593971,-0.012739256024360657,-0.012137537822127342,-0.011535819619894028,-0.010934100486338139,-0.010332382284104824,-0.00973066408187151,-0.009128945879638195,-0.00852722767740488,-0.007925509475171566,-0.007323790807276964,-0.00672207260504365,-0.006120354402810335,-0.005518635734915733,-0.004916917532682419,-0.00431519839912653,-0.003713480196893215,-0.003111761761829257,-0.002510043326765299,-0.0019083251245319843,-0.001306606805883348,-0.0007048884872347116,-0.0001031701685860753,0.000498548150062561,0.0011002664687111974,0.0017019847873598337,0.002303703222423792,0.0029054214246571064,0.003507139626890421,0.004108858294785023,0.004710576497018337,0.005312294699251652,0.005914012901484966,0.006515731103718281,0.007117449771612883,0.007719167973846197,0.008320886641740799,0.008922604843974113,0.009524323046207428,0.010126041248440742,0.010727759450674057,0.011329477652907372,0.011931195855140686,0.012532914057374,0.01313463319092989,0.013736351393163204,0.014338069595396519,0.014939787797629833]},"gradients/deconv4_fb.bias":{"bins":[-0.7507516741752625,-0.727187991142273,-0.7036243081092834,-0.680060625076294,-0.6564968824386597,-0.6329331994056702,-0.6093695163726807,-0.5858058333396912,-0.5622421503067017,-0.5386784672737122,-0.5151147842407227,-0.49155107140541077,-0.46798738837242126,-0.44442370533943176,-0.4208599925041199,-0.39729630947113037,-0.37373262643814087,-0.35016894340515137,-0.32660526037216187,-0.30304154753685,-0.2794778645038605,-0.25591418147087097,-0.23235048353672028,-0.20878678560256958,-0.18522310256958008,-0.16165941953659058,-0.13809572160243988,-0.11453203111886978,-0.09096834063529968,-0.06740465015172958,-0.043840959668159485,-0.020277269184589386,0.0032864809036254883,0.026850171387195587,0.050413861870765686,0.07397755235433578,0.09754124283790588,0.12110493332147598,0.14466862380504608,0.16823232173919678,0.19179600477218628,0.21535968780517578,0.23892338573932648,0.2624870836734772,0.2860507667064667,0.3096144497394562,0.33317816257476807,0.35674184560775757,0.38030552864074707,0.4038692116737366,0.4274328947067261,0.45099660754203796,0.47456029057502747,0.49812397360801697,0.5216876864433289,0.5452513694763184,0.5688150525093079,0.5923787355422974,0.6159424185752869,0.6395061016082764,0.6630698442459106,0.6866335272789001,0.7101972103118896,0.7337608933448792,0.7573245763778687],"_type":"histogram","values":[1,0,0,1,0,0,2,0,1,0,0,0,0,1,0,2,0,1,0,0,1,0,0,1,1,1,0,0,0,0,2,1,3,1,1,0,0,1,1,0,0,2,1,1,0,0,0,1,1,0,0,0,0,0,1,0,0,1,0,0,0,0,0,1]},"gradients/conv1.weight":{"_type":"histogram","values":[4,3,1,3,2,1,2,3,7,9,2,5,6,4,3,10,11,10,26,23,27,45,44,16,10,8,10,12,8,7,9,7,9,13,11,9,9,8,6,6,5,2,5,0,2,1,3,2,4,0,0,0,5,0,3,1,0,0,1,2,1,3,0,1],"bins":[-0.49689745903015137,-0.47522976994514465,-0.4535621106624603,-0.4318944215774536,-0.4102267324924469,-0.3885590732097626,-0.36689138412475586,-0.34522369503974915,-0.32355600595474243,-0.3018883466720581,-0.2802206575870514,-0.2585529685020447,-0.23688530921936035,-0.21521762013435364,-0.19354994595050812,-0.1718822568655014,-0.15021458268165588,-0.12854690849781036,-0.10687921941280365,-0.08521154522895813,-0.06354386359453201,-0.041876181960105896,-0.020208504050970078,0.0014591757208108902,0.023126855492591858,0.044794537127017975,0.06646221876144409,0.08812989294528961,0.10979757457971573,0.13146525621414185,0.15313293039798737,0.17480061948299408,0.1964682936668396,0.21813596785068512,0.23980365693569183,0.26147133111953735,0.28313902020454407,0.3048066794872284,0.3264743685722351,0.3481420576572418,0.36980974674224854,0.39147740602493286,0.4131450951099396,0.4348127841949463,0.4564804434776306,0.47814813256263733,0.49981582164764404,0.5214834809303284,0.5431511402130127,0.5648188591003418,0.5864865183830261,0.6081542372703552,0.6298218965530396,0.6514895558357239,0.673157274723053,0.6948249340057373,0.7164925932884216,0.7381603121757507,0.7598279714584351,0.7814956307411194,0.8031633496284485,0.8248310089111328,0.8464986681938171,0.8681663870811462,0.8898340463638306]},"gradients/fc1.bias":{"_type":"histogram","values":[2,1,0,0,0,0,0,0,0,0,0,1,0,1,0,0,1,1,0,1,0,4,2,1,0,1,2,1,0,0,3,2,37,1,4,0,2,1,0,2,2,1,1,0,0,3,0,2,0,0,0,0,0,1,0,0,1,1,0,0,0,0,0,1],"bins":[-0.2779291868209839,-0.2693641185760498,-0.2607990503311157,-0.25223401188850403,-0.24366894364356995,-0.23510387539863586,-0.22653882205486298,-0.2179737687110901,-0.209408700466156,-0.20084363222122192,-0.19227857887744904,-0.18371352553367615,-0.17514845728874207,-0.16658338904380798,-0.1580183357000351,-0.1494532823562622,-0.14088821411132812,-0.13232314586639404,-0.12375809252262115,-0.11519303172826767,-0.10662797093391418,-0.0980629101395607,-0.08949784934520721,-0.08093278855085373,-0.07236772775650024,-0.06380266696214676,-0.055237606167793274,-0.04667254537343979,-0.038107484579086304,-0.02954242378473282,-0.020977362990379333,-0.012412302196025848,-0.003847271203994751,0.004717789590358734,0.01328285038471222,0.021847911179065704,0.03041297197341919,0.038978032767772675,0.04754309356212616,0.056108154356479645,0.06467321515083313,0.07323827594518661,0.0818033367395401,0.09036839753389359,0.09893345832824707,0.10749851912260056,0.11606357991695404,0.12462864071130753,0.133193701505661,0.1417587697505951,0.15032382309436798,0.15888887643814087,0.16745394468307495,0.17601901292800903,0.18458406627178192,0.1931491196155548,0.2017141878604889,0.21027925610542297,0.21884430944919586,0.22740936279296875,0.23597443103790283,0.24453949928283691,0.253104567527771,0.2616696059703827,0.2702346742153168]},"gradients/conv3.bias":{"_type":"histogram","values":[2,0,0,0,0,1,0,0,0,1,0,0,0,0,1,2,1,1,0,0,1,0,0,1,0,0,1,1,1,2,0,3,1,2,0,0,0,0,0,0,0,1,0,2,0,0,0,1,1,1,1,0,0,1,0,0,0,0,0,1,0,0,0,1],"bins":[-1.4737600088119507,-1.4247722625732422,-1.3757846355438232,-1.3267968893051147,-1.2778092622756958,-1.2288215160369873,-1.1798338890075684,-1.1308461427688599,-1.0818583965301514,-1.0328707695007324,-0.9838830828666687,-0.934895396232605,-0.8859076499938965,-0.8369199633598328,-0.787932276725769,-0.7389445900917053,-0.6899569034576416,-0.6409692168235779,-0.5919815301895142,-0.5429938435554504,-0.49400612711906433,-0.4450184404850006,-0.3960307240486145,-0.3470430374145508,-0.29805535078048706,-0.24906766414642334,-0.20007996261119843,-0.1510922610759735,-0.10210457444190979,-0.05311688035726547,-0.004129186272621155,0.04485850781202316,0.09384608268737793,0.14283376932144165,0.19182147085666656,0.24080917239189148,0.2897968590259552,0.3387845456600189,0.38777226209640503,0.43675994873046875,0.48574763536453247,0.5347353219985962,0.5837230086326599,0.6327106952667236,0.6816984415054321,0.7306861281394958,0.7796738147735596,0.8286615014076233,0.877649188041687,0.9266368746757507,0.9756245613098145,1.024612307548523,1.073599934577942,1.1225876808166504,1.1715753078460693,1.2205630540847778,1.2695508003234863,1.3185384273529053,1.3675261735916138,1.4165138006210327,1.4655015468597412,1.5144891738891602,1.5634769201278687,1.6124645471572876,1.661452293395996]},"Classification_with_Predictive_Coding_On_Models_Pretrained_with_Reconstruction/fine_tuned_train_loss":1.6929301904595417,"gradients/conv4.bias":{"_type":"histogram","values":[1,0,0,0,0,1,0,0,0,0,0,0,1,0,0,1,0,0,0,1,1,0,0,1,0,2,0,1,1,0,1,2,1,2,3,1,3,4,1,3,4,4,3,6,1,0,1,1,1,2,0,0,0,1,0,1,3,0,2,1,0,0,0,1],"bins":[-3.807766914367676,-3.7067513465881348,-3.6057357788085938,-3.5047202110290527,-3.4037046432495117,-3.3026890754699707,-3.2016735076904297,-3.1006579399108887,-2.9996423721313477,-2.8986270427703857,-2.7976114749908447,-2.6965959072113037,-2.5955803394317627,-2.4945647716522217,-2.3935492038726807,-2.2925336360931396,-2.1915180683135986,-2.0905025005340576,-1.9894869327545166,-1.8884713649749756,-1.7874557971954346,-1.686440348625183,-1.585424780845642,-1.484409213066101,-1.38339364528656,-1.282378077507019,-1.181362509727478,-1.080346941947937,-0.9793314337730408,-0.8783158659934998,-0.7773003578186035,-0.6762847900390625,-0.5752694606781006,-0.47425389289855957,-0.37323835492134094,-0.2722228169441223,-0.1712072491645813,-0.07019169628620148,0.030823856592178345,0.13183940947055817,0.232854962348938,0.333870530128479,0.43488606810569763,0.5359016060829163,0.6369171738624573,0.7379327416419983,0.8389482498168945,0.9399638175964355,1.0409793853759766,1.1419949531555176,1.2430105209350586,1.3440260887145996,1.4450416564941406,1.546057105064392,1.647072672843933,1.7480882406234741,1.8491038084030151,1.9501193761825562,2.0511348247528076,2.1521503925323486,2.2531659603118896,2.3541815280914307,2.4551970958709717,2.5562126636505127,2.6572282314300537]}}